13 200
C001 0.775657329083518 0.35776805095108 0.303839783688215 0.860398487976404 0.657110892830207 0.527763907550238 0.739717780749142 0.286098052322892 0.162554399800147 0.246306919784502 0.458433883513674 0.0944625281167433 0.220592556551299 0.246397407108603 0.641352541119428 0.250164978526406 0.941705642472531 0.0416226758379992 0.0235864767514151 0.0274865364926953 0.674425640443491 0.943824999082196 0.320181771217587 0.226342302030524 0.0522558406666782 0.512352300864507 0.952408950404884 0.149963896391945 0.541840786034118 0.162049375620271 0.0749642624830891 0.719858799814737 0.135541895408668 0.457627363181558 0.413052597569514 0.382570560762424 0.0973402449987653 0.901105748428662 0.685096726444467 0.148467242149501 0.621629620085546 0.41825592651719 0.846767028315679 0.0634521265397794 0.0298628822225631 0.926614931474333 0.182846953069312 0.158909800206168 0.668180743170925 0.244533830498909 0.485962433415875 0.852786337746814 0.0162170087565023 0.616354100997043 0.489353639341314 0.425493477165467 0.0374960660409194 0.48726859473885 0.111725163806778 0.498987472443027 0.437599648184392 0.0824480160312788 0.375971257204977 0.97719279915264 0.018088535646033 0.313950760968254 0.483556401176781 0.122833131102375 0.570653652416087 0.556760045141559 0.0689836425186421 0.952236064827353 0.923897804304634 0.668609050174382 0.183674007569646 0.918958006497384 0.589396895422613 0.059288907574242 0.828405299156426 0.562920514956538 0.537265661383632 0.691737274193002 0.584037954394898 0.948573277667727 0.625490585928805 0.182853599528968 0.000534724899718952 0.968440845798249 0.101049534131992 0.995782503709563 0.266330043735575 0.00293433305140667 0.951696552579097 0.42207553875285 0.369119378258855 0.699804552624691 0.110759067432699 0.252035557122184 0.503438947343977 0.353993590356659 0.0770061675920779 0.850643523160542 0.111437217865582 0.258446652212534 0.209358604738814 0.68636643721959 0.345571901216015 0.576839243252699 0.171806387419441 0.108073661683321 0.30329505857696 0.518945395628627 0.945386204959224 0.504098905127108 0.444934706134813 0.52793482745745 0.777581201424955 0.595652998050284 0.71088930093131 0.60627964513926 0.0192976425597386 0.968419943473862 0.999991997074158 0.993838561300358 0.198029592099079 0.500982110704811 0.557669903096834 0.989357651571076 0.913451650645133 0.842071423234273 0.103640056852452 0.486995478338436 0.317113922824849 0.771508534559402 0.0607937769535418 0.635086030951776 0.477910479287775 0.168672851197016 0.339194761927768 0.158359432103659 0.844435481710651 0.439669412792014 0.794449102449104 0.201036801758725 0.127237653868466 0.917875637514527 0.683917560724648 0.821016115559821 0.149466722505526 0.765738349387036 0.356277366869246 0.409809406603607 0.792732630695102 0.847650885286214 0.651872697383265 0.634642300347004 0.913552556112609 0.509197995624007 0.388315248163334 0.944473704681222 0.670049859664804 0.0473642666284775 0.13622920632157 0.0875505633917513 0.802225858716344 0.265436466217224 0.735323773965742 0.432018983810586 0.10390757623512 0.0168931121846754 0.595691515501056 0.531232830961109 0.240265175039088 0.211792243309347 0.411067500453665 0.340523103396428 0.659599457469941 0.809892403528153 0.0705628087867574 0.671730132738624 0.15805540774274 0.795448789022132 0.0870517676819667 0.905794942139231 0.545280089425749 0.723417920411464 0.011015610292116 0.102820021000447 0.270195096491012 0.865406649767422 0.0184214005357113 0.524532386821924 0.0695030056438135 0.251466357314911 0.0534643660993304 0.177927172469659 0.0459267026879679 0.501737398021518 0.678169536940995 0.403577161001373
C002 0.745247869013983 0.536593786247522 0.690505111245823 0.260826752926938 0.0358491284084614 0.327550319766047 0.883500577474702 0.638636854932763 0.984681181775674 0.3516254052536 0.245707622367444 0.669624187155712 0.630504510536088 0.402579318298464 0.867136563013812 0.310883580555036 0.0681527209216917 0.722571074577957 0.686615768889038 0.434159039299892 0.643814143624287 0.89202406761531 0.571551599564881 0.636127737865472 0.216437708770517 0.664212704942969 0.587632088152997 0.323894771212345 0.337971197496206 0.580256011071342 0.425564261914328 0.678804441511566 0.146992540972665 0.141431124890573 0.989032922376435 0.471520208872199 0.636280708098969 0.956226363517672 0.000413220240144341 0.651799218928311 0.452999706716756 0.292191616642327 0.989180767827587 0.316902609449137 0.306570132627957 0.0358898376220367 0.236386646325652 0.363178653849012 0.50823534840092 0.152208872430663 0.654070799112088 0.526696284092772 0.840176572436736 0.306684377574314 0.381271268515942 0.942180711517771 0.37130072053515 0.606663685754455 0.231668843959721 0.00682479402525615 0.600149579748251 0.180083745880424 0.388332257057609 0.579358544431749 0.339516620140248 0.0609452545120348 0.718068396402298 0.118218800015235 0.567191276682923 0.120466371447733 0.284230433962417 0.649560639941335 0.385787673408974 0.370244535464764 0.538314568733266 0.730605707811272 0.672988327619255 0.182020429665087 0.93622861403551 0.251469233536362 0.701001175895019 0.896925651984304 0.47681319513968 0.80481131461287 0.277973118402588 0.0301316876805942 0.723234196208804 0.893707974146473 0.960032995995451 0.174953919536705 0.0205636123971651 0.780947724157222 0.824184308417632 0.649677210580293 0.846670436820173 0.785068890283775 0.731190863992229 0.552260615856426 0.963023955518491 0.168025860499803 0.0737797340403752 0.849874586670822 0.404864148979069 0.945197768355904 0.656933181418427 0.354776185263432 0.457238118746385 0.379944973066934 0.629887454485033 0.363812892569214 0.898582884659188 0.142116116977625 0.647959298014801 0.569965129076479 0.703923844781212 0.043475588058449 0.628863543561625 0.810518181302953 0.53554996865881 0.484246953609095 0.353275016042293 0.783047396575711 0.113541717634131 0.715766423778582 0.591658043359832 0.0383828391234005 0.558211066069443 0.347150712348899 0.595594894216138 0.115692653467704 0.0909351469963831 0.192069849973201 0.426873308374741 0.401014719235732 0.831721277393395 0.198966634210016 0.294450736027162 0.214825367306076 0.556951744515299 0.358794533751514 0.489231781090115 0.330038523148502 0.0980670679508897 0.803594063706804 0.638633459715923 0.918280211820786 0.943526804867684 0.852657977170374 0.414553052534803 0.164108462845959 0.627432650717363 0.226937138081148 0.915103359665299 0.0843988546092476 0.677029917021184 0.623625714059308 0.17597287382792 0.569367799486244 0.479365754231562 0.0490754179959012 0.453261581477168 0.214260755142391 0.099246043574265 0.867487996164392 0.436019597228427 0.0438174168285883 0.223993019715063 0.194012071023728 0.60148344549879 0.918092162538784 0.366182718565437 0.693338861189098 0.805296337704721 0.936532150092646 0.767480584043849 0.828690281759485 0.517072066064518 0.98149906505995 0.111965326642331 0.321886537810236 0.0608999585398813 0.132390153453073 0.876130717712552 0.854257624884262 0.821298526218474 0.772521405779997 0.568402738981273 0.572438205247131 0.726340796988172 0.0539571518724955 0.0999506994320107 0.61509720000921 0.847952680183798 0.997107441382695 0.39037589384797 0.88956618746213 0.66960985849845 0.914393985475968 0.059225421500738 0.584933389627274
C003 0.296836468344114 0.358458683539112 0.653022222189929 0.184876724570593 0.53717302052009 0.218732417170074 0.476570532590952 0.954359164000969 0.592889442002818 0.504797424818946 0.358759131151242 0.324966526538482 0.909054599407046 0.355590736709772 0.912138237089774 0.24042091931431 0.147144007685828 0.760460413588675 0.320510070900365 0.183566376745667 0.0338054464356965 0.747377256916124 0.891093182636236 0.266435897917027 0.0174657132534186 0.526823804849641 0.472067022661502 0.794035115493081 0.882033551452071 0.434256360248028 0.000171179994705284 0.119006301989195 0.175041710586758 0.912416076469214 0.49734355834023 0.287781396031853 0.0433079451641056 0.155628316431077 0.574078811905363 0.979233274454394 0.696838342114777 0.105677162758127 0.167342934633989 0.984854668192533 0.683629503594535 0.962600654346673 0.792687300052361 0.0464229834695331 0.724756610947001 0.239173619847151 0.926985997018061 0.214860907192538 0.379295070710061 0.145905433884522 0.366419311790278 0.125116109319457 0.958972106877955 0.0106811998161902 0.0835139814976564 0.189522667699954 0.147864127742412 0.79594332596163 0.499922700769499 0.830061095044464 0.785953773028783 0.12439777302896 0.414001614516746 0.522617105731804 0.408070050216924 0.625111971410931 0.49307048810115 0.778790584628858 0.880913710391699 0.694651100626345 0.131586223914251 0.798689673464914 0.917900806204262 0.777302651942662 0.163521703202203 0.587749535078665 0.269948030042887 0.114817521631579 0.928338886318226 0.928855254537503 0.963706761810915 0.225425868881629 0.256523015961388 0.965462551216625 0.388886575289494 0.535769181620367 0.247273948868649 0.900162569919623 0.203076072424086 0.0150529878834647 0.145326404366525 0.705017054522607 0.633877148516323 0.0210189924090685 0.0268135756594567 0.924411746930566 0.600350950726597 0.0507376703330209 0.41954341423391 0.918177959847547 0.26298768999786 0.649834074714079 0.908094281790436 0.922979006481377 0.836040914997444 0.341307374628016 0.408951880180378 0.424738596329057 0.27861766844126 0.324939998235521 0.298822730419612 0.746116486120577 0.420021933713617 0.621391773051059 0.296716289478663 0.813251671336808 0.0972677555259089 0.808039696118385 0.74695838070674 0.518359278961249 0.493293194968818 0.0486814924331753 0.238678282936686 0.323073138775833 0.3962246692052 0.554222493244225 0.793320887038544 0.0260858310675829 0.964196041724694 0.239887149311969 0.824319099441393 0.362690895575859 0.515975883036138 0.245440250306558 0.844290462426311 0.118941902379028 0.192382426410223 0.253095212787528 0.290191083307771 0.175599292694805 0.192676711302401 0.53357918812307 0.634089731466485 0.683752358750162 0.907453050884858 0.250193790779221 0.128060686073663 0.892519509464556 0.196750092196485 0.395257519137772 0.530705910754858 0.867709125184412 0.429068170281074 0.480267997886486 0.117700706881006 0.967554902607155 0.661707203826555 0.673330575566212 0.280332467145012 0.877037692839743 0.541466851741934 0.913341125556755 0.358214828084126 0.785909503749529 0.50153486031363 0.834186686136889 0.782279716741623 0.858008634884449 0.567713291569294 0.323564397763633 0.571972815225703 0.0520869017648735 0.335503447744717 0.705268615881977 0.139624140019247 0.079074648781166 0.287621606798286 0.87193465789845 0.81168006302104 0.42002580876882 0.766006972247542 0.973856945930493 0.540436500957224 0.876077705077229 0.348193329713684 0.270845895078324 0.713800481491258 0.710417671098519 0.688054604952473 0.526003332757028 0.490249170581318 0.596884945279506 0.726534646323802 0.426257080573848 0.610497028886041 0.975490749102754
C004 0.548290921107284 0.283603148839177 0.538493367802726 0.087476033891825 0.622603232307529 0.047985347559532 0.137449510536552 0.617834152071218 0.116929843110373 0.0579485691767729 0.919957342945064 0.0984187321931316 0.882767352450134 0.0946101098901266 0.45635457527916 0.747374377131074 0.387745109728062 0.0797047306260765 0.466886841849981 0.358833523834484 0.685042702083468 0.076700278105946 0.848608153590586 0.969405963438923 0.679267906261604 0.288103153502021 0.738169500951994 0.964362184833028 0.753005281546184 0.180553293370323 0.230615894075097 0.836616935496316 0.874600102929524 0.166248177401656 0.559115136213205 0.156319253041069 0.807761407179601 0.894361262542319 0.0913724674443834 0.269338771916914 0.0077593612309137 0.894783725701899 0.0686642013084899 0.53111941466836 0.315988774874842 0.319696040087805 0.459395919630733 0.350789698473442 0.0812301805553126 0.862769275684741 0.930427002951813 0.21223788793575 0.846945304686859 0.633431665032063 0.76879856817413 0.0378691667525501 0.0824027698047907 0.122465473743006 0.57977657375427 0.541374946438289 0.51247530753098 0.228699123656995 0.913221248523907 0.493100442245712 0.655839441293868 0.203831397619808 0.251288415504501 0.401159787295946 0.03142532747761 0.908194971146102 0.351553029395571 0.939607288204279 0.783816036692887 0.814887030134827 0.0591406382620896 0.368643011670038 0.933514825660684 0.129141907880339 0.860803828823432 0.168549794086822 0.129343707280473 0.345696071350517 0.587658333154575 0.516991047723515 0.297589684315529 0.706425968587965 0.419192675049654 0.0872334599268854 0.403884183270694 0.766575778631392 0.290006329268703 0.832209908603211 0.205319321961742 0.568911545051535 0.746459668890363 0.986144710449274 0.23622947948056 0.465242086549495 0.490104797526538 0.892389740522198 0.783781023246707 0.133662025575134 0.228605016719424 0.524455075262999 0.539524797103471 0.802949821089186 0.936162476937067 0.668875678520358 0.309007899465389 0.613770396915001 0.310703815710522 0.786075333959012 0.300171193854258 0.686289385104374 0.663792611113916 0.0519345899813075 0.347459708272016 0.107730716876645 0.954140585478168 0.142129987440846 0.0453524072514178 0.249152854481309 0.3924969954498 0.97790134848379 0.323508573599288 0.631757928281601 0.423552852758259 0.0707614793162961 0.985188028302193 0.818483986960075 0.801373847838345 0.840452343065671 0.218414459300721 0.351190047506933 0.49396840826881 0.531462653678254 0.971023035356101 0.697778208067888 0.808225528333889 0.205567990478649 0.329898062531772 0.143083323300615 0.150066167391483 0.968674998102834 0.963121510392543 0.943900201117344 0.410812445639902 0.717910080511821 0.151301605385346 0.279337524075927 0.987185878814554 0.528179283192905 0.659040172508131 0.235638290722733 0.739819800816644 0.485753846962218 0.465460815797332 0.458165074387964 0.817657237777919 0.60984427249516 0.298215175869334 0.136516371787536 0.720174131098684 0.162278719330438 0.690794201237782 0.631444323795407 0.436214273060781 0.451588239118841 0.428803431896089 0.539735698416251 0.140666929212909 0.402935772819497 0.365748531203355 0.0764737938106776 0.104706189352637 0.0419470878842603 0.599577527941992 0.84972040970365 0.991412926087644 0.371773956715039 0.412622257026658 0.942870811141589 0.079011159148191 0.292431944329216 0.522681127236698 0.502592231854607 0.644490937343516 0.494021243725008 0.482921410018111 0.0688344979276252 0.420004870806817 0.0658981344014578 0.242309547356147 0.757001358587615 0.825185486456672 0.707880905356923 0.253785331455948 0.205719652173983 0.4056309519172 0.353436541165301
C005 0.239888026986254 0.297092074275128 0.349567729984994 0.0554171809108723 0.0186524004399935 0.915844614086481 0.0925656996077713 0.619837387350536 0.208078003245678 0.0809832467738261 0.288724522747923 0.570568670166359 0.295218738124834 0.315682776510485 0.963664861943581 0.0964655550717382 0.433949534333298 0.0409953793979696 0.560764773350524 0.0717418423411189 0.459875679348006 0.525063960176951 0.14132552705021 0.590425616546121 0.34591581476602 0.695957473988926 0.948802552942407 0.64710111640003 0.610194615168826 0.152738436958728 0.347091489105363 0.200183812138043 0.799533542972544 0.471278519534025 0.196436732602148 0.332586030292255 0.9556606223335 0.399632946840242 0.644275772838764 0.180353274558307 0.10403071350871 0.539069983287845 0.141817237237813 0.725850079194721 0.0417391081821172 0.393354616803677 0.0130693106809723 0.0821378605463607 0.624431218660053 0.288457243849081 0.817208316394225 0.0537298653400811 0.023492512013167 0.18097525233479 0.976550079201754 0.21096901386354 0.0334034566971901 0.115319468146083 0.0630295448575957 0.516517264507264 0.0223469164212027 0.401855034751478 0.821202313978628 0.389159145925468 0.932467956549662 0.0810489967842329 0.483675578448139 0.569221376752758 0.323241234623271 0.0382412200582252 0.437000734536209 0.988934082901743 0.613956841163859 0.131522864708245 0.506986002891306 0.168171091460728 0.79927445228974 0.798603997529554 0.439810023496985 0.209996190611029 0.193125764310654 0.990330646632543 0.900056926158253 0.910723159290121 0.487099214895142 0.627148228725602 0.0327951165841363 0.615808851039695 0.204076768108369 0.544404379192827 0.341156277166174 0.426504726096859 0.678692864104665 0.552666350142957 0.0137331726170338 0.0140820268120976 0.0236583210266907 0.52554787427195 0.550825086229121 0.340533346409252 0.243769839211911 0.590874285203867 0.441563405140041 0.869477712440663 0.164266608637181 0.55796430045325 0.0448173351499399 0.621721556534773 0.151982172143551 0.69659877378696 0.738206269825238 0.57034313368387 0.559479961875983 0.18973247205443 0.787351277343941 0.154687149876288 0.325187617046499 0.825661090002583 0.420628814289696 0.0363186188402764 0.455716120084364 0.355283847695148 0.895215440884936 0.928454359535898 0.017447767973227 0.0110286814159082 0.233328309467932 0.349956128306694 0.418609838592719 0.826283802851407 0.0715928398642625 0.322545215784494 0.894051330680856 0.983782825420903 0.182851594180161 0.32302349122866 0.264566163113646 0.599922303349899 0.63303723195342 0.589124408475165 0.860740527059637 0.276676960968317 0.863662877036969 0.166958460571315 0.435952505709739 0.84647066925541 0.833855572560946 0.779275046978576 0.48045142320645 0.936536916350789 0.508618052321051 0.726975760438812 0.452650469601711 0.992062681104414 0.689221128474156 0.0421467727184464 0.507261784658954 0.941480816248216 0.397498898986608 0.0606193619703888 0.593196182582464 0.748009842937989 0.651662026376368 0.437631741885248 0.665872874806002 0.16991301373649 0.613505844417059 0.494091286641229 0.885495711302756 0.41456217908717 0.305140324130246 0.146388058406252 0.309834424989948 0.300472955462752 0.650303287081666 0.673477298296227 0.820109941194065 0.58487750416387 0.706757005217877 0.23544429975005 0.00285481731647863 0.335596450690261 0.0411567847317222 0.543028907744791 0.938361119294289 0.454063668210495 0.128188609228214 0.943282840643668 0.38492133368759 0.536073377416031 0.00689672727690649 0.628950176244807 0.593021069741898 0.298509841461367 0.727281523782505 0.785213742280412 0.908588137073327 0.429962421264335 0.100888425982443 0.484676866703886
C006 0.731098904204178 0.332324465669103 0.114800275788337 0.648015037096549 0.160672463537924 0.216450005359221 0.966883863127688 0.662424553926023 0.50625386200517 0.0705490614490429 0.872146472412918 0.442229301694972 0.520732316035964 0.32371713187915 0.61957565876676 0.11582136773179 0.892616727218954 0.532918643594883 0.822935354666225 0.811170472993958 0.850081763494178 0.0996044184968952 0.107869123731856 0.509730105280191 0.242311082493874 0.107291058818618 0.26463723898463 0.857608925179143 0.753732761194517 0.614842175407816 0.027333580519862 0.515903511420298 0.905723471873362 0.658469122867928 0.426061434705655 0.842266887536859 0.712535220974122 0.340838931149634 0.11098944620289 0.806905588400802 0.616579357378956 0.51599099647413 0.132280537824453 0.332670345746926 0.0439198722578062 0.0274983779168423 0.0465328840033656 0.125770858765598 0.33313956662116 0.303565802083824 0.0306633139226555 0.336567631713059 0.217031267438689 0.451261269572868 0.743295142674295 0.505162567763527 0.622339741203749 0.183183045827349 0.760004695660211 0.541038969508982 0.52167109762259 0.829545368063108 0.503679015325329 0.437329874100406 0.475453108187171 0.978525971677186 0.129311732720833 0.8965853075184 0.470354797251833 0.60498309643198 0.94151016183525 0.554953140361469 0.651864709376643 0.815170537249429 0.713624644601691 0.434898829346942 0.59891722862405 0.991333119147086 0.0336863514915215 0.17300549693234 0.261803035700584 0.36915326320144 0.271322439137958 0.389681598584197 0.523486049821646 0.142668632933649 0.391702994997498 0.86304791574667 0.319382826445011 0.550842770678827 0.0406828721528534 0.401792854993978 0.210274182067526 0.0584217138223124 0.696078647487948 0.083914092688552 0.424070605609504 0.46765138376486 0.283036836123795 0.833169542210932 0.419525605022717 0.369089628613452 0.249399476693494 0.776530499977859 0.56169234015039 0.806974736385456 0.40567757825529 0.988378709521619 0.19608152104151 0.960885581461113 0.772647002894612 0.745656032366604 0.255360417376753 0.359848885622853 0.619755460849188 0.348324492808196 0.0964167418997484 0.992342928779706 0.894668729805797 0.597614733474465 0.942204951264902 0.2661659958911 0.366709289362927 0.757546442232815 0.565628964011882 0.231858458176575 0.26609659803054 0.9806341510916 0.503552239956921 0.703891220926494 0.681355546046387 0.874710026740878 0.50774641065242 0.802386889613572 0.866713505227718 0.883190932776863 0.334201009208929 0.167574973046072 0.250577179547985 0.0953042079612558 0.628852132197398 0.357975319500767 0.869213449630049 0.785804335579563 0.200704889054666 0.185556331627311 0.173623913380634 0.58622503858161 0.574906067901498 0.436552890925398 0.37249616605521 0.53300738621288 0.409077383450043 0.310604905262124 0.333356348638187 0.0338383027769353 0.234778785226428 0.234367535719215 0.424082436050266 0.894764490507065 0.479093405164267 0.48535002453832 0.847336448852996 0.200278278769453 0.833893625236204 0.329688196567318 0.013931566310017 0.920393353470551 0.60536926068318 0.431697704901609 0.283487307385212 0.40715376609797 0.605006795074946 0.946867499861625 0.140887842009899 0.353088133787104 0.674660782390422 0.542537381551313 0.197115410234442 0.621496582674844 0.890037761042823 0.1965864125021 0.628178074194064 0.569429819077122 0.504327117792062 0.864391980822887 0.0744089196644033 0.905701799208664 0.500495108285765 0.354078978348852 0.0958276728592544 0.735808870751235 0.2686654980503 0.151266455010386 0.95209581653118 0.611373041070784 0.0439258456145701 0.644361792528244 0.385557989875107 0.132474249784302
C007 0.787830120591881 0.642801470081992 0.823766051705729 0.846400250183827 0.70994894646903 0.191969434296126 0.777672988381507 0.885961997237949 0.468306093056842 0.173940498241734 0.440432169481237 0.425261362010282 0.701816729542703 0.762423641661329 0.539638607803621 0.671945605859769 0.204417198353216 0.458670129790534 0.266223178355983 0.724453415219337 0.098080495083952 0.673640573472525 0.702503506125222 0.3030894815873 0.477104053083313 0.906994981239677 0.159676757082291 0.608122674110042 0.433819645388883 0.78770706717161 0.474005173560951 0.500275856284922 0.219217044107214 0.132160139129866 0.816915196372246 0.863377406368961 0.702026330501798 0.806933362916695 0.36615072426812 0.560614575541784 0.755826240509098 0.384235641508951 0.135060789150753 0.39043102124041 0.793120472638794 0.192816327277868 0.940256985238701 0.0819342478588894 0.273558290732016 0.506529061521491 0.432566694746594 0.729637335687421 0.614202835350131 0.902523772208824 0.0538798140121024 0.380992304053471 0.824728127146759 0.652893820063241 0.897709614912099 0.37564379862156 0.259536615936998 0.794737027497504 0.631757889349384 0.751430578208776 0.830041112820428 0.926852416953722 0.72731093206205 0.728302565779707 0.639880852138294 0.995165487398864 0.276841531509515 0.247542083997381 0.407899077750333 0.307555332579966 0.164823272622453 0.460643380325941 0.920681746603055 0.731773414652892 0.487672421268311 0.251203722706173 0.628851504328853 0.712947914464593 0.050239770879795 0.546126276756645 0.967760825164152 0.150735847591008 0.854825399320671 0.681868721791112 0.97049093430488 0.817119125711315 0.553853621221418 0.180556188186962 0.754021657428883 0.40636701853397 0.371818840206739 0.343301665289907 0.831099482007463 0.286657594781019 0.481715819157625 0.358455599596716 0.34182968070208 0.881741254184405 0.91484540740262 0.565778039920723 0.94961115109729 0.429941968551532 0.912709304016158 0.91935545211394 0.623102480757371 0.741452891217094 0.0208703087162654 0.998759283195049 0.974962464611625 0.863644133114207 0.955478028699655 0.46637856591412 0.472780695472199 0.143938302770138 0.325089483629167 0.136593382372858 0.229661730568328 0.69232542926045 0.0980197943967305 0.677653911813287 0.351232519842245 0.34800969404013 0.406435466724471 0.918580135588165 0.920415077894578 0.869857552111313 0.963572000637281 0.18051412413309 0.677277603390866 0.636726887684446 0.333763983842143 0.53477924897313 0.662905209945936 0.865501386843277 0.283489773582669 0.339092709915953 0.485898943489179 0.451459882233806 0.905549650101815 0.390228506108819 0.208326635381358 0.492828594963356 0.551136247941383 0.0178514720684646 0.983344190602413 0.379971529218196 0.432364451433923 0.0327783086307463 0.686038948659789 0.776272328086634 0.130375090400815 0.626732726511115 0.617200593978158 0.674576237209308 0.92410800375978 0.733537949317331 0.509707544923973 0.0279450086693771 0.558075664965781 0.528044955912499 0.190160628792132 0.789907173482604 0.712903896461196 0.323968041489387 0.333558966537087 0.886462679650833 0.402111553094397 0.190854605086123 0.363578158267092 0.0245509965021284 0.867771739280268 0.839942591048775 0.0908858910378321 0.929866987456847 0.314653454021947 0.315570785627934 0.620547796780517 0.726785714931211 0.238629844289985 0.500643259984336 0.198694582779613 0.61633742531842 0.855127803163366 0.519573719872689 0.388122952476682 0.681883831372161 0.604878787076242 0.55893743267324 0.470395443019417 0.729238026358331 0.248032758984959 0.0741518167473103 0.554420840398752 0.236919491538103 0.197761403771917 0.599930758805861
C008 0.14269510572203 0.207144258398955 0.487873521235979 0.613676334599326 0.0587455696565264 0.438744922060053 0.81589009308362 0.935673909262327 0.693356338845209 0.224847434944394 0.106799255930706 0.699856648578539 0.581493220645445 0.961778002632386 0.859777604951741 0.846542343768839 0.803249823371434 0.657935519290049 0.480094214971626 0.617083202650043 0.615485640832492 0.884469380699798 0.873902809984425 0.553596951661909 0.899129694851869 0.611400761212764 0.760495950804351 0.799279288816713 0.361512500124622 0.436794099388905 0.6037882563061 0.971272489588635 0.202822544728154 0.52182616819465 0.404383838994914 0.844346858629287 0.958243959335324 0.685839271887588 0.150761632961174 0.48602980247113 0.108027391197655 0.453054375633741 0.781201434120032 0.159205634562177 0.530309117764961 0.752535897975221 0.538518571513546 0.234146876563237 0.00768194188779958 0.596844042994576 0.542046496861001 0.896588851333128 0.418218218410505 0.559809480906907 0.893299529982524 0.610612835927661 0.402858283105108 0.662870465351858 0.26418284269182 0.994173019744842 0.739939401820283 0.300900665354831 0.483438815755814 0.0311280561616272 0.238408942924568 0.796528652280301 0.385298475052178 0.807283168126709 0.126323612109378 0.786333679609882 0.0642391166201683 0.290502631699205 0.931092087884966 0.898348688543791 0.594654778395931 0.038329078954753 0.0712040711512891 0.578986927746641 0.330570221550342 0.213284495518415 0.482662425555791 0.735434753536993 0.657841859005696 0.409292100727932 0.841879549461499 0.35894663995488 0.792285925396978 0.676237552581249 0.403422197741353 0.0331907389325181 0.117675433964177 0.797996177678904 0.306823474788548 0.273301051740688 0.0564984241140358 0.497329250834717 0.910984461587734 0.814696966486792 0.435840981172856 0.364560802397399 0.354843731928259 0.120759145200353 0.3259448196664 0.132176076101068 0.014508668358193 0.61545407045773 0.918211175808676 0.531347658944306 0.803550819776735 0.0969545480701157 0.904125666258292 0.596434519685282 0.646426362142652 0.842811671587356 0.201332951109332 0.547876786534609 0.824874844137742 0.483521748754939 0.635590802023099 0.541414130027981 0.961682633266893 0.472251032102491 0.168400833877808 0.771602156367301 0.951504637300122 0.102508348039393 0.503693022815266 0.950228322231872 0.288776773667085 0.476792443686634 0.910103517596763 0.726100616680391 0.670505107900841 0.577413630683807 0.0583254672448525 0.493087681789852 0.987393393995266 0.871149662876149 0.749050948543424 0.460142223609132 0.459001737089313 0.44312030260879 0.952603894595395 0.182879561342894 0.644173074721412 0.0188552708339103 0.406059512795576 0.724274037925603 0.871703949508618 0.929212801871259 0.630150349765696 0.605966831795847 0.621179435997707 0.898432396953496 0.1023932245193 0.0059635302377572 0.951171900109234 0.804652154135098 0.123580021876162 0.668177711619272 0.960877323550651 0.353789808247086 0.764129128429072 0.52001179972607 0.799114030310921 0.0165039058395706 0.999988415680317 0.492247660665434 0.0469446203666202 0.964368928970174 0.523135441810847 0.837860873995915 0.62063555952837 0.981392230768606 0.720681267422119 0.830513387326583 0.221998006436511 0.0621729174362144 0.393721273998761 0.957583420123775 0.933240890576247 0.295579868224095 0.0700849492796998 0.115448080363642 0.771320801325093 0.595659489474343 0.344837073696066 0.265757259475443 0.918525719969256 0.318050113506317 0.852720419036157 0.0606660392334319 0.29593883683069 0.994580740483286 0.984775267030937 0.0230911413743016 0.0868774566328518 0.550693643904609 0.75731908411802 0.546313939242559
C009 0.518898119500822 0.925204780534585 0.728640861737755 0.717582293197843 0.524135365040213 0.990679525901427 0.143604261642022 0.375305030356081 0.995355855269427 0.841955559478265 0.628432105354516 0.872150326980524 0.994044661291117 0.662316311792907 0.519957228610789 0.370641630989091 0.0301042209812898 0.539358821504067 0.0113915978269681 0.668106145101099 0.0814716031483336 0.349185696429046 0.649132168898088 0.19911034060933 0.345404080069304 0.487283691111372 0.694358571410117 0.0514785501325505 0.37872942754716 0.142057767276654 0.544379636164248 0.252923457478964 0.687513652150191 0.592820954940947 0.82017336325772 0.826135326432741 0.440997801593728 0.794073443508168 0.0997834643423765 0.898419150363644 0.612054958804297 0.173740666421622 0.29675541859039 0.605799623553914 0.866701265567702 0.031906262319481 0.736311369836013 0.409721995536977 0.146368680305105 0.351323262685042 0.410296474832943 0.396476534049164 0.394844958945004 0.910092233179896 0.239024802068823 0.945304552908532 0.891265870564073 0.774459945701608 0.431080889611604 0.0114688207540112 0.353688732956176 0.0154430432173314 0.911088911526971 0.996679717603506 0.395092790056427 0.572269642090731 0.933765388001699 0.483074811121192 0.143773565696012 0.829434459441913 0.276668816934798 0.840992645822176 0.309782928993545 0.699081418558535 0.113520816916473 0.128225538686799 0.693197008300093 0.83868833601106 0.82749366570442 0.66307011630726 0.921578105507539 0.383482792416117 0.59525880702763 0.949732274245896 0.984167203203828 0.0471431972392082 0.726815294299879 0.177524251247313 0.138358336113672 0.222235939131508 0.105236555108245 0.61047965181573 0.817247827999655 0.388234929555281 0.959683607656469 0.777796582944283 0.911027988216237 0.57021536136844 0.902653252188667 0.304813656964662 0.953339130907995 0.161385678111046 0.149906109295866 0.466567515073358 0.368163536923507 0.269122146465065 0.0534219954160271 0.469537807584949 0.653323036377618 0.0243256062434654 0.151754326277679 0.0807452898632093 0.651136060937407 0.430581501805733 0.46912133400799 0.426344919687502 0.421433111831011 0.261248738494189 0.568425185628055 0.614287635024787 0.551179424783502 0.943331820038964 0.131200912191371 0.728175913296731 0.450792999070405 0.0165306703892867 0.549460711385958 0.763398326756764 0.570382907146953 0.609565088594735 0.0738359845162329 0.193911176023626 0.868199726360064 0.934712490682372 0.575774723907752 0.171179967655767 0.955344847580054 0.332080020454214 0.508395891436106 0.358964064395174 0.38011112970047 0.179681824264222 0.453630535570706 0.232613340859523 0.58523169634697 0.57176084562505 0.938311895544938 0.343760185518256 0.332929424310027 0.119458466442026 0.407858949516051 0.735772764251031 0.335244664671311 0.373996265275366 0.235200091361417 0.94775016415614 0.518055779829911 0.0577186417913964 0.989801180572211 0.0614759310519091 0.682003985152168 0.623004632979558 0.425415414051269 0.113517662795694 0.275823565267689 0.269168483284247 0.496906629998843 0.141105785633009 0.869118604614219 0.824632990029045 0.370783084978182 0.773708484783448 0.582300742195333 0.253103889895684 0.738610758192291 0.881131045870454 0.909216944157553 0.641049144261075 0.618074144473962 0.492920653108634 0.839084697217249 0.557970483393021 0.277063611993096 0.302891045875207 0.0629721736728222 0.604847544358734 0.43886203471855 0.247359419911312 0.0285956172239601 0.749463947510051 0.721474875736188 0.217499635424296 0.206163260587349 0.925441264075261 0.484717508120536 0.146975224293733 0.746007323447049 0.0956875952096965 0.261286627684367 0.858261934921835
C010 0.672570865107819 0.0672139733358108 0.542269449088774 0.897966678513036 0.373837292831002 0.32511057223816 0.386080295985717 0.526786807217938 0.743514966725176 0.826757335669782 0.588479509585749 0.327944725133428 0.326350407737568 0.376546667673708 0.659069620795574 0.974016970113688 0.944098919247356 0.965620833926835 0.718548771353294 0.351718170215953 0.858313787498265 0.405100264673209 0.486226741703657 0.933687735880248 0.701732444125472 0.0653525887297235 0.547194960201306 0.342574860123996 0.406272867830655 0.434002527119546 0.0545338421070163 0.953264426620272 0.724263884339084 0.163211296617078 0.368609050250068 0.992096832022618 0.810401706634014 0.949487480373037 0.000548094669394317 0.426197576799716 0.663059853606175 0.899780977329243 0.701220408516814 0.390961830649879 0.0511133071800209 0.424334206829982 0.914412964507644 0.519374096778186 0.240628228183457 0.363821782190314 0.840469942737155 0.243847646438248 0.32699856221409 0.225427939491468 0.484644239245821 0.510931633665955 0.0428882410226414 0.555041678039487 0.696111027811991 0.843469792564242 0.399295234982976 0.611669399245542 0.945464467577576 0.906142428335748 0.602949250548281 0.402075383664851 0.500128298770544 0.671947101004413 0.132971205704269 0.560788284065907 0.501154800477476 0.582862029917457 0.236267568822829 0.570808498192747 0.937184710640121 0.272103880175798 0.075639024493416 0.977093380830226 0.570838541701871 0.133077291603875 0.326308546364519 0.877286323385817 0.871577578113243 0.336981339238982 0.732901624263878 0.426918332961193 0.0223060267199422 0.513377134095599 0.405348923383716 0.979798444302872 0.123004620402764 0.802745046641867 0.922361859616064 0.924498659593482 0.0449357617155464 0.0947086255132135 0.426812269703337 0.166331695273698 0.678011349175602 0.0983392529823064 0.218411350230657 0.448242184469692 0.949462066800489 0.21056998910489 0.0835381481289836 0.476435700641929 0.314811449955709 0.604652970767695 0.0360469197819562 0.80583159526843 0.976284780079848 0.342831212577515 0.890643448534409 0.100646742229117 0.866242119886902 0.80662676614967 0.344345733886872 0.186324416567643 0.144211891709968 0.155661995379482 0.0221421524279357 0.985967267973109 0.248936637246185 0.583643280212023 0.34886305310518 0.238392242146332 0.277971289589768 0.690585832763269 0.567247600265464 0.842499918693875 0.946366750598184 0.576708559889973 0.73709932950668 0.796067634827764 0.615523110825958 0.169468097955921 0.955289146275678 0.294186512439893 0.849227787981317 0.595345341098898 0.242316187820865 0.43684366456732 0.815149505612819 0.0172850462655774 0.787432898063091 0.745703988368234 0.228709699016331 0.582783489150678 0.348363644684742 0.901697617988091 0.757493932667156 0.912809727452149 0.208904050754544 0.647920874611458 0.146517555327829 0.744946864035747 0.931813732004418 0.0325869750673604 0.269167417859048 0.902889855190288 0.257166137954787 0.235919407084452 0.790075347169402 0.0668999406490016 0.517578502946083 0.29019231117708 0.782234520179028 0.874781744952763 0.329520334276769 0.486439988684339 0.0621672266430089 0.589831576537684 0.610323211572013 0.103158345181484 0.98783706168231 0.971043494142371 0.0278457567122565 0.995706240836569 0.251340660403212 0.502317382249352 0.25636826963721 0.269810916794953 0.742408990550697 0.852779640800513 0.158709524608415 0.713940461840338 0.762716267236907 0.311516211858084 0.589406396562328 0.384304238903255 0.841381058912784 0.0695685997205473 0.593833150515966 0.989480868966439 0.698419428409164 0.103120353747023 0.618244191098473 0.791379333051296 0.787969309563092 0.17819323729406
TREATS 0.625916360829113 0.384374290781523 0.221111998096358 0.895555502946685 0.141274336678567 0.287973932915023 0.0528986167641357 0.0498859433776531 0.0764244445192652 0.463369833153337 0.997705651001876 0.46024438191143 0.235758028214452 0.0887771579375425 0.419467609148878 0.982669928453412 0.0780354052555232 0.64217472067503 0.747186648257451 0.876890194068189 0.188858330496476 0.393677197464982 0.393345301396717 0.921635574387771 0.676760135788815 0.770834785016888 0.0821754796804264 0.475336977448258 0.555018009094187 0.514562260372074 0.596179182444668 0.657929356565909 0.983017493107102 0.425788470641749 0.198064201784614 0.396351237232729 0.207326950656398 0.205679884734835 0.248491292473826 0.938669446787053 0.559077274671726 0.0257795404648675 0.846048107635408 0.186482529296264 0.40442232680012 0.154592081997507 0.896114986911211 0.549904918176672 0.310536283337829 0.105638166828726 0.554338739783514 0.112170908069722 0.260668062503886 0.26602389086851 0.875978204643044 0.460511877894071 0.73622811572449 0.986974597245904 0.0752498966679234 0.245866131299756 0.167861900021098 0.357044061648523 0.602928797080065 0.166217201463517 0.255225121300189 0.788931146863149 0.282918595378742 0.807587576783511 0.159101161829017 0.601743154193812 0.709492787215535 0.444229605057039 0.600098791949225 0.707489832099753 0.649743266170514 0.207267888656538 0.554071128629023 0.564550895217948 0.176901740316534 0.831496854556995 0.942362654284725 0.758434522413381 0.989191766616653 0.726387433312063 0.479902760913763 0.943561203135019 0.858420740389189 0.273396972726566 0.49902954947385 0.726918049646457 0.368452115795616 0.801820707529721 0.0228793051168346 0.208709851147475 0.214953779058444 0.554710368316272 0.858472997840838 0.895686276906247 0.966469161399441 0.4304799038919 0.833654137860595 0.164376301781729 0.658098676003018 0.321008873434657 0.159290158013508 0.234362691431755 0.181230705155269 0.300254901065792 0.982275014317754 0.0919578085746338 0.627268962586154 0.726136738011256 0.557621702878837 0.123798648400566 0.474736924450479 0.870913009029302 0.739192699202352 0.535190443113962 0.415195472822798 0.000247692679970157 0.126391747113249 0.362345955128745 0.284907240552069 0.778035861818928 0.744564771405766 0.979468268136017 0.800065698323831 0.52290125391098 0.44418877355324 0.15501004761694 0.830749096310893 0.613734912877739 0.720548205793353 0.646138439883501 0.742754276357967 0.307010507719319 0.652016318171949 0.021793573895792 0.790433418741383 0.349801050581569 0.479907148177364 0.373726585426752 0.764043292671968 0.151972670778228 0.682899985927325 0.0781417611237885 0.641491854367398 0.412107914021568 0.48914511198176 0.0902733631514963 0.129426393209766 0.108102790265427 0.702345182247488 0.938252505890688 0.918171177724798 0.689502551621224 0.655503637614533 0.694439677116222 0.638036011371153 0.309530006270414 0.536897757418931 0.57111568967963 0.763050585911383 0.566081127665974 0.32455226806319 0.257764578482309 0.637428329950634 0.679004863090931 0.0135675736431757 0.799497783941064 0.928347904574832 0.402661444323549 0.698727506728989 0.33643644972004 0.867405909397089 0.485605218246711 0.684632817027509 0.773689371731621 0.816911043229236 0.761428109233158 0.0170612360155822 0.83816462979361 0.873753226534856 0.245117360538636 0.37035068927543 0.674684775371048 0.243711350290891 0.0671402412416526 0.87247188768767 0.328215201028272 0.0267056803868648 0.992908010981431 0.316357926342423 0.10556454207034 0.345725830723932 0.328955669364781 0.985374468515307 0.878401220862727 0.629167934240453 0.530391942938017
ISA 0.533052403822698 0.115203101984179 0.471415501686476 0.00883964255167058 0.600998357219471 0.563794244189907 0.206142775596472 0.848739020283652 0.0610049013324989 0.565025475640823 0.940577474067862 0.115690130330655 0.432684601234531 0.494150544489244 0.82952698814233 0.567253514927977 0.489457910655634 0.59738847020256 0.281168660307639 0.128725856914578 0.734567254303233 0.830522004453584 0.251376042389577 0.8888976275231 0.0442261849168268 0.293263366509848 0.921769321386915 0.409347273843686 0.65442610841983 0.582248209313846 0.693934724116669 0.271720197685845 0.956821538548528 0.217248661362277 0.346674978382691 0.347594738744256 0.491130986136984 0.105502838564561 0.376176132257537 0.742490652562275 0.628382220316812 0.43954299198947 0.405175526475812 0.607492230281061 0.860980571752055 0.131794014293419 0.244286790376574 0.537627305062635 0.309994994171976 0.797359932165051 0.807400701803157 0.48497899188181 0.0633715723884229 0.843294826817939 0.917480928370676 0.546548175594829 0.635255875189475 0.612367911916806 0.836181364044688 0.572795559311693 0.12861681248744 0.981606820832397 0.560722303538963 0.853861573624549 0.361423280366811 0.816090075286155 0.957696370135988 0.638604689676136 0.129363677726662 0.227535787768133 0.252377242660796 0.5293527378902 0.102275166542004 0.451800453090073 0.32324512699692 0.865791771929914 0.34194713687997 0.121685772570359 0.427517899222718 0.698511896600728 0.668789540199274 0.819304390138569 0.120306223667011 0.380803361470733 0.755144382635212 0.609153765594598 0.146540032434952 0.841388171444486 0.873025536427551 0.108092728860868 0.353112855738214 0.29654654389541 0.241180944884992 0.886334112825878 0.263954927178073 0.213842811737258 0.296090076797444 0.224710813793394 0.911296067475643 0.338285895496774 0.427470942506222 0.6038182401238 0.0536603865204732 0.262814307537575 0.57283292842229 0.661784943882708 0.719717149516935 0.486638870579419 0.937456952144078 0.636601849696618 0.484691040947265 0.915996993057426 0.203920798968912 0.679000462056507 0.353430842540842 0.971684508172423 0.205047785015967 0.571288309507437 0.135393530941226 0.666373814196525 0.770198914883711 0.770427234015813 0.748791309795688 0.38286441321717 0.509535275251142 0.77970351881568 0.684167432056423 0.44333299652822 0.694756342599707 0.377939830701479 0.545033153878318 0.621269029808396 0.226503995781588 0.449314095556915 0.0213581041251381 0.364637412565195 0.374869124990173 0.07708129138814 0.150230065654153 0.914066286566573 0.545130630299798 0.223067293764203 0.289582958738716 0.597304509633084 0.589003117834469 0.00957090685872686 0.84135400570899 0.135243756719781 0.0634025422990767 0.164747621734065 0.578717951642968 0.720493722180116 0.573316223561708 0.165758024612671 0.0802281312231621 0.232499537973162 0.740167894711977 0.610671694140208 0.576966419188746 0.179787354850923 0.0576075320378813 0.23067544056093 0.755486993658689 0.647031119744106 0.656562486162517 0.0945194137981247 0.210877690478323 0.64978998515263 0.852418690662066 0.0989475041609467 0.245227845150037 0.231135567841285 0.919241282347787 0.939326141283701 0.194878219348194 0.380760497041358 0.287000638537339 0.836659626444686 0.0358572039891207 0.317948419165653 0.823975433564573 0.299137073108952 0.45482329282893 0.895029919257261 0.912116651982021 0.82239744289285 0.129707142095167 0.278312741511549 0.0905583818966313 0.402551611658012 0.590272685222711 0.720247304736226 0.402160461146881 0.0350154456084226 0.627316069860068 0.111683876046023 0.578597474078226 0.501362072586502 0.896638939439153 0.19903494992635
AFFECTS 0.517826010003919 0.972296461742644 0.679839106259845 0.361139442544506 0.398650308549566 0.559717637887402 0.981052269730068 0.798423315337338 0.32357324447236 0.48251491762656 0.472873434622851 0.916978249960955 0.744297857719761 0.032721025326552 0.674731392463766 0.757475071150928 0.593392125947478 0.870018390561256 0.0250543569453434 0.0790558174105982 0.0881292189529184 0.178091907450906 0.769844904079545 0.35779675422048 0.483874879997874 0.996293512719916 0.363098072145032 0.584918273143394 0.608245660293012 0.220507675872668 0.0902931378629681 0.57917558528785 0.105364302496842 0.739583854114812 0.069537516143253 0.17896046158635 0.841774439443146 0.345458709032428 0.543535743682579 0.411368057745669 0.579953757953437 0.098978974082371 0.290217914166373 0.697248151032802 0.59801568701484 0.937931864144431 0.0945355473286575 0.633105971773169 0.539372317308878 0.432995393239423 0.0356890081570604 0.573308297056805 0.106228457562953 0.700962476527096 0.0530845585946587 0.440674650173655 0.786296294963908 0.808021800363775 0.0139512346860435 0.13210537923073 0.221694864421881 0.290071712021913 0.672223309741948 0.910957134741771 0.019386257302731 0.198602371152219 0.291583441254982 0.0325858912242225 0.268584026858651 0.881832680703852 0.818160018488467 0.917627224488676 0.105356387479166 0.32938363830911 0.796100041381077 0.743587126862629 0.759270370558529 0.658285282586391 0.391041382161941 0.784213279553249 0.370640903730621 0.277651914918636 0.0444558213540454 0.993570467223016 0.797143634958775 0.533646318524305 0.251122122158275 0.654043777127463 0.780730040985535 0.565739835553899 0.510936924056079 0.721553436345921 0.443580753446174 0.575737962017328 0.636325710345741 0.284624668224033 0.677005918029895 0.364182142075947 0.732246847735421 0.174778855640945 0.709632584933946 0.481784250117826 0.444884021555591 0.73278764661449 0.948916424998462 0.599352403575864 0.588416610124181 0.448073489564315 0.119111287833693 0.156701814145592 0.300688968799729 0.186987503765771 0.133583078456329 0.213413922413054 0.195238540791006 0.940512637646556 0.98214693993798 0.911737633412898 0.0191844903560501 0.0244158061034838 0.955446603836439 0.559769640802841 0.497243477119252 0.91692119044837 0.616914820229187 0.0522831576629272 0.948072570362083 0.0231371934299531 0.245311817498678 0.933797424906516 0.959811451801254 0.604905729522876 0.762117581130259 0.655920706424709 0.669802287057561 0.543243659825173 0.0111611931761821 0.536508665876937 0.724826272239351 0.0325263139623146 0.333939352212969 0.155234615987681 0.721756195316541 0.406061240858797 0.672364310074475 0.747869699812838 0.216354704744258 0.117380658607352 0.498571628879336 0.934646167199006 0.315243662609699 0.146732593441293 0.114418192389056 0.44687711107494 0.461151288921439 0.354787471497112 0.755043612031802 0.526507889786771 0.515856090037428 0.293038017142372 0.273111362507084 0.257079545917009 0.323360120136083 0.820919780638043 0.352972477247807 0.148919401412186 0.985434262574355 0.332106528304841 0.415012242658751 0.0190902258849803 0.44360525044733 0.106153142669775 0.905981864474388 0.266203502153914 0.17984338516592 0.0667076607819794 0.145440352284002 0.495735912937278 0.919731670902348 0.22455768850606 0.503919691758416 0.572707807627651 0.846946673817623 0.134103729626581 0.445586560880205 0.30083964073944 0.669779150580904 0.507377023528939 0.975639209028106 0.301573766444093 0.77561368331757 0.562981356559781 0.717206468596405 0.309236089086198 0.977341520281055 0.98150106241426 0.208990020441423 0.0423414702083988 0.0092948657329508 0.377770118547794
